Language model created by QuickLM on Mon Dec 14 05:56:42 EST 2015
Copyright (c) 1996-2010 Carnegie Mellon University and Alexander I. Rudnicky

The model is in standard ARPA format, designed by Doug Paul while he was at MITRE.

The code that was used to produce this language model is available in Open Source.
Please visit http://www.speech.cs.cmu.edu/tools/ for more information

The (fixed) discount mass is 0.5. The backoffs are computed using the ratio method.
This model based on a corpus of 24 sentences and 26 words

\data\
ngram 1=26
ngram 2=48
ngram 3=24

\1-grams:
-0.7782 </s> -0.3010
-0.7782 <s> -0.2218
-2.1584 上一个 -0.2218
-2.1584 上一首 -0.2218
-2.1584 下一个 -0.2218
-2.1584 下一首 -0.2218
-2.1584 停止播放 -0.2218
-2.1584 儿歌 -0.2218
-2.1584 几号 -0.2218
-2.1584 几点 -0.2218
-2.1584 几点钟 -0.2218
-2.1584 学习 -0.2218
-2.1584 幽默 -0.2218
-2.1584 我想你 -0.2218
-2.1584 我爱你 -0.2218
-2.1584 报告地址 -0.2218
-2.1584 故事 -0.2218
-2.1584 时间 -0.2218
-2.1584 星期几 -0.2218
-2.1584 暂停播放 -0.2218
-2.1584 笑话 -0.2218
-2.1584 绕口令 -0.2218
-2.1584 继续播放 -0.2218
-2.1584 胎教 -0.2218
-2.1584 雪宝 -0.2218
-2.1584 音乐 -0.2218

\2-grams:
-1.6812 <s> 上一个 0.0000
-1.6812 <s> 上一首 0.0000
-1.6812 <s> 下一个 0.0000
-1.6812 <s> 下一首 0.0000
-1.6812 <s> 停止播放 0.0000
-1.6812 <s> 儿歌 0.0000
-1.6812 <s> 几号 0.0000
-1.6812 <s> 几点 0.0000
-1.6812 <s> 几点钟 0.0000
-1.6812 <s> 学习 0.0000
-1.6812 <s> 幽默 0.0000
-1.6812 <s> 我想你 0.0000
-1.6812 <s> 我爱你 0.0000
-1.6812 <s> 报告地址 0.0000
-1.6812 <s> 故事 0.0000
-1.6812 <s> 时间 0.0000
-1.6812 <s> 星期几 0.0000
-1.6812 <s> 暂停播放 0.0000
-1.6812 <s> 笑话 0.0000
-1.6812 <s> 绕口令 0.0000
-1.6812 <s> 继续播放 0.0000
-1.6812 <s> 胎教 0.0000
-1.6812 <s> 雪宝 0.0000
-1.6812 <s> 音乐 0.0000
-0.3010 上一个 </s> -0.3010
-0.3010 上一首 </s> -0.3010
-0.3010 下一个 </s> -0.3010
-0.3010 下一首 </s> -0.3010
-0.3010 停止播放 </s> -0.3010
-0.3010 儿歌 </s> -0.3010
-0.3010 几号 </s> -0.3010
-0.3010 几点 </s> -0.3010
-0.3010 几点钟 </s> -0.3010
-0.3010 学习 </s> -0.3010
-0.3010 幽默 </s> -0.3010
-0.3010 我想你 </s> -0.3010
-0.3010 我爱你 </s> -0.3010
-0.3010 报告地址 </s> -0.3010
-0.3010 故事 </s> -0.3010
-0.3010 时间 </s> -0.3010
-0.3010 星期几 </s> -0.3010
-0.3010 暂停播放 </s> -0.3010
-0.3010 笑话 </s> -0.3010
-0.3010 绕口令 </s> -0.3010
-0.3010 继续播放 </s> -0.3010
-0.3010 胎教 </s> -0.3010
-0.3010 雪宝 </s> -0.3010
-0.3010 音乐 </s> -0.3010

\3-grams:
-0.3010 <s> 上一个 </s>
-0.3010 <s> 上一首 </s>
-0.3010 <s> 下一个 </s>
-0.3010 <s> 下一首 </s>
-0.3010 <s> 停止播放 </s>
-0.3010 <s> 儿歌 </s>
-0.3010 <s> 几号 </s>
-0.3010 <s> 几点 </s>
-0.3010 <s> 几点钟 </s>
-0.3010 <s> 学习 </s>
-0.3010 <s> 幽默 </s>
-0.3010 <s> 我想你 </s>
-0.3010 <s> 我爱你 </s>
-0.3010 <s> 报告地址 </s>
-0.3010 <s> 故事 </s>
-0.3010 <s> 时间 </s>
-0.3010 <s> 星期几 </s>
-0.3010 <s> 暂停播放 </s>
-0.3010 <s> 笑话 </s>
-0.3010 <s> 绕口令 </s>
-0.3010 <s> 继续播放 </s>
-0.3010 <s> 胎教 </s>
-0.3010 <s> 雪宝 </s>
-0.3010 <s> 音乐 </s>

\end\
