Language model created by QuickLM on Mon Dec 14 23:25:49 EST 2015
Copyright (c) 1996-2010 Carnegie Mellon University and Alexander I. Rudnicky

The model is in standard ARPA format, designed by Doug Paul while he was at MITRE.

The code that was used to produce this language model is available in Open Source.
Please visit http://www.speech.cs.cmu.edu/tools/ for more information

The (fixed) discount mass is 0.5. The backoffs are computed using the ratio method.
This model based on a corpus of 29 sentences and 38 words

\data\
ngram 1=38
ngram 2=68
ngram 3=75

\1-grams:
-1.0059 </s> -0.3010
-1.0059 <s> -0.2559
-2.4683 一下 -0.2559
-2.4683 上一个 -0.2936
-2.4683 上一首 -0.2981
-2.4683 下一个 -0.2936
-2.4683 下一首 -0.2981
-2.1673 今天 -0.2951
-2.4683 停止播放 -0.2559
-2.1673 儿歌 -0.2559
-2.4683 几号 -0.2559
-2.4683 几点 -0.2559
-2.4683 几点钟 -0.2559
-2.4683 学习 -0.2559
-2.4683 幽默 -0.2996
-2.4683 我想你 -0.2559
-2.4683 我爱你 -0.2559
-2.4683 报告地址 -0.2559
-1.6902 播放 -0.2890
-2.1673 放一段 -0.2951
-1.7694 故事 -0.2559
-2.1673 时间 -0.2526
-2.4683 星期几 -0.2559
-1.8663 是 -0.2951
-2.1673 是什么 -0.2526
-2.4683 暂停播放 -0.2559
-2.1673 来个 -0.2966
-2.1673 歌曲 -0.2559
-1.8663 现在 -0.2890
-2.1673 笑话 -0.2559
-2.4683 绕口令 -0.2559
-2.4683 继续播放 -0.2559
-2.4683 胎教 -0.2559
-2.4683 讲 -0.2936
-2.4683 讲一个 -0.2936
-2.1673 讲个 -0.2906
-1.0059 雪宝 -0.2559
-2.1673 音乐 -0.2559

\2-grams:
-0.3010 <s> 雪宝 -0.0000
-0.3010 一下 </s> -0.3010
-0.3010 上一个 故事 0.0000
-0.3010 上一首 歌曲 0.0000
-0.3010 下一个 故事 0.0000
-0.3010 下一首 歌曲 0.0000
-0.3010 今天 是 -0.1761
-0.3010 停止播放 </s> -0.3010
-0.3010 儿歌 </s> -0.3010
-0.3010 几号 </s> -0.3010
-0.3010 几点 </s> -0.3010
-0.3010 几点钟 </s> -0.3010
-0.3010 学习 </s> -0.3010
-0.3010 幽默 一下 0.0000
-0.3010 我想你 </s> -0.3010
-0.3010 我爱你 </s> -0.3010
-0.3010 报告地址 </s> -0.3010
-1.0792 播放 上一个 0.0000
-1.0792 播放 上一首 0.0000
-1.0792 播放 下一个 0.0000
-1.0792 播放 下一首 0.0000
-1.0792 播放 儿歌 0.0000
-1.0792 播放 音乐 0.0000
-0.6021 放一段 儿歌 0.0000
-0.6021 放一段 音乐 0.0000
-0.3010 故事 </s> -0.3010
-0.6021 时间 </s> -0.3010
-0.6021 时间 是什么 -0.1761
-0.3010 星期几 </s> -0.3010
-0.9031 是 几号 0.0000
-0.9031 是 几点 0.0000
-0.9031 是 几点钟 0.0000
-0.9031 是 星期几 0.0000
-0.6021 是什么 </s> -0.3010
-0.6021 是什么 时间 -0.1761
-0.3010 暂停播放 </s> -0.3010
-0.6021 来个 笑话 0.0000
-0.6021 来个 绕口令 0.0000
-0.3010 歌曲 </s> -0.3010
-0.9031 现在 时间 -0.1761
-0.6021 现在 是 -0.1761
-0.9031 现在 是什么 -0.1761
-0.3010 笑话 </s> -0.3010
-0.3010 绕口令 </s> -0.3010
-0.3010 继续播放 </s> -0.3010
-0.3010 胎教 </s> -0.3010
-0.3010 讲 故事 0.0000
-0.3010 讲一个 故事 0.0000
-0.6021 讲个 故事 0.0000
-0.6021 讲个 笑话 0.0000
-1.4624 雪宝 今天 0.0000
-1.7634 雪宝 停止播放 0.0000
-1.7634 雪宝 学习 0.0000
-1.7634 雪宝 幽默 0.0000
-1.7634 雪宝 我想你 0.0000
-1.7634 雪宝 我爱你 0.0000
-1.7634 雪宝 报告地址 0.0000
-0.9853 雪宝 播放 0.0000
-1.4624 雪宝 放一段 0.0000
-1.7634 雪宝 暂停播放 0.0000
-1.4624 雪宝 来个 0.0000
-1.1614 雪宝 现在 0.0000
-1.7634 雪宝 继续播放 0.0000
-1.7634 雪宝 胎教 0.0000
-1.7634 雪宝 讲 0.0000
-1.7634 雪宝 讲一个 0.0000
-1.4624 雪宝 讲个 0.0000
-0.3010 音乐 </s> -0.3010

\3-grams:
-1.4624 <s> 雪宝 今天
-1.7634 <s> 雪宝 停止播放
-1.7634 <s> 雪宝 学习
-1.7634 <s> 雪宝 幽默
-1.7634 <s> 雪宝 我想你
-1.7634 <s> 雪宝 我爱你
-1.7634 <s> 雪宝 报告地址
-0.9853 <s> 雪宝 播放
-1.4624 <s> 雪宝 放一段
-1.7634 <s> 雪宝 暂停播放
-1.4624 <s> 雪宝 来个
-1.1614 <s> 雪宝 现在
-1.7634 <s> 雪宝 继续播放
-1.7634 <s> 雪宝 胎教
-1.7634 <s> 雪宝 讲
-1.7634 <s> 雪宝 讲一个
-1.4624 <s> 雪宝 讲个
-0.3010 上一个 故事 </s>
-0.3010 上一首 歌曲 </s>
-0.3010 下一个 故事 </s>
-0.3010 下一首 歌曲 </s>
-0.6021 今天 是 几号
-0.6021 今天 是 星期几
-0.3010 幽默 一下 </s>
-0.3010 播放 上一个 故事
-0.3010 播放 上一首 歌曲
-0.3010 播放 下一个 故事
-0.3010 播放 下一首 歌曲
-0.3010 播放 儿歌 </s>
-0.3010 播放 音乐 </s>
-0.3010 放一段 儿歌 </s>
-0.3010 放一段 音乐 </s>
-0.3010 时间 是什么 </s>
-0.3010 是 几号 </s>
-0.3010 是 几点 </s>
-0.3010 是 几点钟 </s>
-0.3010 是 星期几 </s>
-0.3010 是什么 时间 </s>
-0.3010 来个 笑话 </s>
-0.3010 来个 绕口令 </s>
-0.3010 现在 时间 是什么
-0.6021 现在 是 几点
-0.6021 现在 是 几点钟
-0.3010 现在 是什么 时间
-0.3010 讲 故事 </s>
-0.3010 讲一个 故事 </s>
-0.3010 讲个 故事 </s>
-0.3010 讲个 笑话 </s>
-0.3010 雪宝 今天 是
-0.3010 雪宝 停止播放 </s>
-0.3010 雪宝 学习 </s>
-0.3010 雪宝 幽默 一下
-0.3010 雪宝 我想你 </s>
-0.3010 雪宝 我爱你 </s>
-0.3010 雪宝 报告地址 </s>
-1.0792 雪宝 播放 上一个
-1.0792 雪宝 播放 上一首
-1.0792 雪宝 播放 下一个
-1.0792 雪宝 播放 下一首
-1.0792 雪宝 播放 儿歌
-1.0792 雪宝 播放 音乐
-0.6021 雪宝 放一段 儿歌
-0.6021 雪宝 放一段 音乐
-0.3010 雪宝 暂停播放 </s>
-0.6021 雪宝 来个 笑话
-0.6021 雪宝 来个 绕口令
-0.9031 雪宝 现在 时间
-0.6021 雪宝 现在 是
-0.9031 雪宝 现在 是什么
-0.3010 雪宝 继续播放 </s>
-0.3010 雪宝 胎教 </s>
-0.3010 雪宝 讲 故事
-0.3010 雪宝 讲一个 故事
-0.6021 雪宝 讲个 故事
-0.6021 雪宝 讲个 笑话

\end\
